"{"input_nodes":6,"hidden_nodes":12,"output_nodes":2,"weights_ih":{"rows":12,"cols":6,"data":[[-4.892211708998667,-1.018111883070521,-1.510320179304779,4.7754390019720585,3.473992077089742,-1.0328247717973036],[-0.6303576054321754,1.2342594265166649,0.0955537330983769,-1.5223047956029017,1.254081489704388,3.4599030957358052],[4.387829170229612,1.4772800848905734,-0.9241177902690755,-2.156537208999434,-1.9601675967599925,0.8777243263621005],[0.0018725524690046125,-4.4973457507644,3.9660924222534204,0.22632806259611926,-1.5631078160193383,2.9425763209065567],[0.7520982934140618,0.3657933644536056,2.0345999028480715,-4.153472218685291,5.409324700912922,0.0726829051577296],[-2.178723164298155,6.28931572391552,6.357924664583228,7.725899607492389,-2.4765145111961915,2.7380486966030384],[5.42921392743541,-0.5805731025428922,-0.10113520090739395,-2.3767915468816483,-2.5372218199732917,-2.9354368334849017],[-3.539171210468959,1.5581830395439806,5.52529112277049,4.824005133540301,-4.271702683959095,-0.6716627636866006],[2.8969627539272276,-2.591857697643161,2.6475628049742594,2.5144478626282996,2.147751368949408,-1.9725019729220434],[0.1842043032803264,2.5952645339823346,-2.7563310636317393,0.514351379152276,3.1139248730299265,3.4981773189160523],[-4.2341842943685535,0.09544619619391081,-3.3079113832117875,1.0470642247160058,2.3142905361557187,-7.96818739204743],[4.001833900891902,3.1786366814811187,-1.22139728585942,-5.208846816514489,-7.304502742197841,0.20501795128829015]]},"weights_ho":{"rows":2,"cols":12,"data":[[-1.132816691098745,-0.48712939028597224,-3.1538751394938105,1.4095372888515487,3.7291020193460933,-0.401438022700942,7.463172862270742,-2.9684722471812837,7.658055062100393,-5.3003722290975555,-3.7564821773854047,-1.9462624018650798],[6.511235763442603,-1.1467438571235673,-8.043320558864993,3.0380181338952656,-2.770167601194521,-0.02366399636858174,2.036443602638447,6.4768241400772455,-0.03126865384911681,-3.607504977638586,-1.10232046347495,-0.3795001053260658]]},"bias_h":{"rows":12,"cols":1,"data":[[-0.15911345176122788],[-1.7828111266918294],[0.9555593985314265],[-1.245535339472513],[-5.051619062377811],[2.5607337569823647],[-2.213952546333999],[-0.06317159236393813],[-2.410843526298102],[-0.005735955828134229],[-2.2479890670155718],[4.760171943020811]]},"bias_o":{"rows":2,"cols":1,"data":[[-0.4031001357917511],[0.45431897838875657]]},"learning_rate":0.1,"activation_function":{}}"
