"{"input_nodes":6,"hidden_nodes":12,"output_nodes":2,"weights_ih":{"rows":12,"cols":6,"data":[[0.2286398344147863,0.10124492218627815,-4.2975276036007095,7.697769045069122,-1.5618344299221398,-5.31897482063999],[-1.9795531556019406,-1.2167249980379578,-1.05119206741232,-4.717233679747729,1.1319797225030703,-2.7297199543960167],[-1.9798822426314888,1.5589655668244218,-2.6093020909942855,-5.705042368459379,2.713577801893689,-0.18015641197090027],[-2.526634994892195,-0.5616372841553601,-0.49936591870315905,9.60469444797743,-2.618051748586874,-2.091295545345378],[3.44986886609684,-4.103393801452004,2.1433435951400073,-4.96645450363722,0.5833616366448546,0.3465745998271435],[-1.4742960878595082,-0.5574408796430803,0.58024869898253,6.076482981264578,-2.5943076572439843,-2.9801709182607494],[-8.67298958644125,-2.546886800572011,0.5905998978418111,-0.43322399134332773,-7.622261828719997,2.3215934866633066],[2.0646736586230188,-1.0152537159019432,-4.938982455882946,-2.132487366628211,-2.747667375728123,0.17031670602315074],[1.0861775560207807,-0.1483593823535746,2.56934056228641,-1.6108410130650193,-2.143738530399565,0.9708117541702032],[3.9890262114225874,7.5764610390539415,6.5212146956243755,1.062179613673862,1.9824613826321142,4.369567150060598],[-2.9497288842304163,-2.50251604023452,-2.482535407182838,4.162048989441531,3.770755151399387,2.158951864483206],[0.8377593932218597,1.0014103223710067,0.3725999663544318,4.6840429679560085,0.6428868795362593,-1.2800116306342924]]},"weights_ho":{"rows":2,"cols":12,"data":[[-1.5419417696503905,5.837129072061138,2.5832055277325607,1.0017827300478355,1.7137507609619353,0.6213156092359008,-5.697827886409841,1.8147334167427729,1.08226473656207,-0.42382095145718157,-2.347306999064941,2.0146485344408767],[2.0555905975583846,-3.2852876890632894,-1.7942081140361439,4.278023322482184,-3.6355351896321775,4.680648916206068,-0.23172087444325884,-5.486725581208386,2.726162589975435,1.6263898594376993,2.620019838939473,0.22864389818127862]]},"bias_h":{"rows":12,"cols":1,"data":[[2.361179182349075],[3.987832228567645],[3.1251813606332846],[0.3376778415770861],[2.369011864558397],[0.6133499712900172],[-2.9431429382370307],[-0.04181737920522209],[3.9772551764137036],[1.7503442220050296],[-5.288257756683382],[-2.0515134902732144]]},"bias_o":{"rows":2,"cols":1,"data":[[-2.2005386902247084],[1.4911789818514896]]},"learning_rate":0.1,"activation_function":{}}"
